[0.16154055213032792, 1.7107763130154554, -39.103472095197354, -5.979536764791984, -22.367132701100992, -11.104370166466381, 3.223342124109639, 65.56044923918174, 70.22982716259405, -25.41625075628323, -10.182940870717367, -4.939505624546685, -36.323321613917315, 43.08484004842199, 19.193869048430248, -5.986806912338927, 6.824784736396292, 1.1822458705508243, -20.12905173440382, -9.039497706907065, -4.321787752261534, 1.431236651478507, 1.324091307378909, 52.69303314630262]
[5.430684944202824, 0.3491467464970542, -0.4501487845441279, -3.928838287297548, 1.8365772683124677, 1.552202432188478, -3.4727696086191235, -0.41433404166419974, -1.4203875039502414, 3.227923184799255, 5.11501256016941, -3.7339791644438307, -6.423953154981317, -3.088835875528425, 7.138359917388101, 1.660735543570551, -6.942898420371683, 0.8420970508578821, -2.773149621057773, -2.2878379688635655, 4.151785379596237, -3.7818901009643593, -0.24807302735258213, 3.2459651567677468]
[0.5108884309960341, -17.376256734369417, 11.995724644231585, -4.474662047204649, -0.007177011672501786, -2.1374108178350393, -3.7270051577955217, -31.15591126827084, -36.31510752408085, 9.36110506800755, -2.143209940851208, -17.621859961071724]
[-0.054783636511739744, -0.7136699891000368]